net
{
	propagationenginegenerator1791944048146838126L = "edu.ucla.belief.approx.BeliefPropagationSettings@87400";
	recoveryenginegenerator6944530267470113528l = "edu.ucla.util.SettingsImpl@f7cbd1";
	node_size = (130 55);
}

node Assets
{
	states = ("wealthy" "average" "poor" );
	position = (29 -78);
	excludepolicy = "include whole CPT";
	DSLxEXTRA_DEFINITIONxRANKED = "false";
	ismapvariable = "false";
	ID = "Assets";
	DSLxPOSITIONxHEIGHT = "30";
	DSLxTYPE = "CPT";
	label = "Assets";
	DSLxEXTRA_DEFINITIONxDIAGNOSIS_TYPE = "AUXILIARY";
	DSLxEXTRA_DEFINITIONxMANDATORY = "false";
	DSLxPOSITIONxWIDTH = "70";
	diagnosistype = "AUXILIARY";
}
node Worth
{
	states = ("High" "Medium" "Low" );
	position = (159 -206);
	excludepolicy = "include whole CPT";
	DSLxEXTRA_DEFINITIONxRANKED = "false";
	ismapvariable = "false";
	ID = "Worth";
	DSLxPOSITIONxHEIGHT = "30";
	DSLxTYPE = "CPT";
	label = "Worth";
	DSLxEXTRA_DEFINITIONxDIAGNOSIS_TYPE = "AUXILIARY";
	DSLxEXTRA_DEFINITIONxMANDATORY = "false";
	DSLxPOSITIONxWIDTH = "70";
	diagnosistype = "AUXILIARY";
}
node RatioDebInc
{
	states = ("Favorable" "Unfavorable" );
	position = (332 -161);
	excludepolicy = "include whole CPT";
	DSLxEXTRA_DEFINITIONxRANKED = "false";
	ismapvariable = "false";
	ID = "RatioDebInc";
	label = "Ratio of Debts to Income";
	DSLxPOSITIONxHEIGHT = "30";
	DSLxTYPE = "CPT";
	DSLxPOSITIONxWIDTH = "81";
	DSLxEXTRA_DEFINITIONxMANDATORY = "false";
	DSLxEXTRA_DEFINITIONxDIAGNOSIS_TYPE = "AUXILIARY";
	diagnosistype = "AUXILIARY";
}
node CreditWorthiness
{
	states = ("Positive" "Negative" );
	position = (399 -438);
	excludepolicy = "include whole CPT";
	DSLxEXTRA_DEFINITIONxRANKED = "false";
	ismapvariable = "false";
	ID = "CreditWorthiness";
	DSLxPOSITIONxHEIGHT = "30";
	DSLxTYPE = "CPT";
	label = "Credit Worthiness";
	DSLxEXTRA_DEFINITIONxDIAGNOSIS_TYPE = "AUXILIARY";
	DSLxEXTRA_DEFINITIONxMANDATORY = "false";
	DSLxPOSITIONxWIDTH = "100";
	diagnosistype = "AUXILIARY";
}
node Income
{
	states = ("s0_30000" "s30001_70000" "s70001_more" );
	position = (107 -1);
	excludepolicy = "include whole CPT";
	DSLxEXTRA_DEFINITIONxRANKED = "false";
	ismapvariable = "false";
	ID = "Income";
	DSLxPOSITIONxHEIGHT = "30";
	DSLxTYPE = "CPT";
	label = "Income";
	DSLxEXTRA_DEFINITIONxDIAGNOSIS_TYPE = "AUXILIARY";
	DSLxEXTRA_DEFINITIONxMANDATORY = "false";
	DSLxPOSITIONxWIDTH = "70";
	diagnosistype = "AUXILIARY";
}
node Reliability
{
	states = ("Reliable" "Unreliable" );
	position = (474 -281);
	excludepolicy = "include whole CPT";
	DSLxEXTRA_DEFINITIONxRANKED = "false";
	ismapvariable = "false";
	ID = "Reliability";
	label = "Reliability";
	DSLxPOSITIONxHEIGHT = "30";
	DSLxTYPE = "CPT";
	DSLxPOSITIONxWIDTH = "70";
	DSLxEXTRA_DEFINITIONxMANDATORY = "false";
	DSLxEXTRA_DEFINITIONxDIAGNOSIS_TYPE = "AUXILIARY";
	diagnosistype = "AUXILIARY";
}
node Debit
{
	states = ("a0_11100" "a11101_25900" "a25901_more" );
	position = (268 24);
	excludepolicy = "include whole CPT";
	DSLxEXTRA_DEFINITIONxRANKED = "false";
	ismapvariable = "false";
	ID = "Debit";
	DSLxPOSITIONxHEIGHT = "30";
	DSLxTYPE = "CPT";
	label = "Debit";
	DSLxEXTRA_DEFINITIONxDIAGNOSIS_TYPE = "AUXILIARY";
	DSLxEXTRA_DEFINITIONxMANDATORY = "false";
	DSLxPOSITIONxWIDTH = "70";
	diagnosistype = "AUXILIARY";
}
node Age
{
	states = ("a16_21" "a22_65" "a66_up" );
	position = (652 -258);
	excludepolicy = "include whole CPT";
	DSLxEXTRA_DEFINITIONxRANKED = "false";
	ismapvariable = "false";
	ID = "Age";
	label = "Age";
	DSLxPOSITIONxHEIGHT = "30";
	DSLxTYPE = "CPT";
	DSLxPOSITIONxWIDTH = "70";
	DSLxEXTRA_DEFINITIONxMANDATORY = "false";
	DSLxEXTRA_DEFINITIONxDIAGNOSIS_TYPE = "AUXILIARY";
	diagnosistype = "AUXILIARY";
}
node PaymentHistory
{
	states = ("Excellent" "Aceptable" "NoAceptable" "Without_Reference" );
	position = (425 31);
	excludepolicy = "include whole CPT";
	DSLxEXTRA_DEFINITIONxRANKED = "false";
	ismapvariable = "false";
	ID = "PaymentHistory";
	label = "Payment History";
	DSLxPOSITIONxHEIGHT = "30";
	DSLxTYPE = "CPT";
	DSLxPOSITIONxWIDTH = "93";
	DSLxEXTRA_DEFINITIONxMANDATORY = "false";
	DSLxEXTRA_DEFINITIONxDIAGNOSIS_TYPE = "AUXILIARY";
	diagnosistype = "AUXILIARY";
}
node Profession
{
	states = ("High_income_profession" "Medium_income_profession" "Low_income_profession" );
	position = (38 -244);
	excludepolicy = "include whole CPT";
	DSLxEXTRA_DEFINITIONxRANKED = "false";
	ismapvariable = "false";
	ID = "Profession";
	label = "Profession";
	DSLxPOSITIONxHEIGHT = "30";
	DSLxTYPE = "CPT";
	DSLxPOSITIONxWIDTH = "83";
	DSLxEXTRA_DEFINITIONxMANDATORY = "false";
	DSLxEXTRA_DEFINITIONxDIAGNOSIS_TYPE = "AUXILIARY";
	diagnosistype = "AUXILIARY";
}
node FutureIncome
{
	states = ("Promissing" "Not_promissing" );
	position = (151 -312);
	excludepolicy = "include whole CPT";
	DSLxEXTRA_DEFINITIONxRANKED = "false";
	ismapvariable = "false";
	ID = "FutureIncome";
	DSLxPOSITIONxHEIGHT = "30";
	DSLxTYPE = "CPT";
	label = "Future Income";
	DSLxEXTRA_DEFINITIONxDIAGNOSIS_TYPE = "AUXILIARY";
	DSLxEXTRA_DEFINITIONxMANDATORY = "false";
	DSLxPOSITIONxWIDTH = "90";
	diagnosistype = "AUXILIARY";
}
node WorkHistory
{
	states = ("Stable" "Unstable" "Justified_no_work" "Unjustified_no_work" );
	position = (695 -90);
	excludepolicy = "include whole CPT";
	DSLxEXTRA_DEFINITIONxRANKED = "false";
	ismapvariable = "false";
	ID = "WorkHistory";
	label = "Work History";
	DSLxPOSITIONxHEIGHT = "30";
	DSLxTYPE = "CPT";
	DSLxPOSITIONxWIDTH = "81";
	DSLxEXTRA_DEFINITIONxMANDATORY = "false";
	DSLxEXTRA_DEFINITIONxDIAGNOSIS_TYPE = "AUXILIARY";
	diagnosistype = "AUXILIARY";
}
potential ( Assets | )
{
	data = (	0.3333333333333333	0.3333333333333333	0.3333333333333333	);
}
potential ( Worth | Income Assets )
{
	data = (((	0.899	0.1	0.0010	)
		(	0.0010	0.3	0.699	)
		(	0.0010	0.1	0.899	))
		((	0.989	0.01	0.0010	)
		(	0.6990000000000001	0.3	0.0010	)
		(	0.1	0.8	0.1	))
		((	0.989	0.01	0.0010	)
		(	0.90734	0.091743	9.170000000000001E-4	)
		(	0.69	0.3	0.01	)));
}
potential ( RatioDebInc | Debit Income )
{
	data = (((	0.5	0.5	)
		(	0.8	0.2	)
		(	0.999	0.0010	))
		((	0.0010	0.999	)
		(	0.5	0.5	)
		(	0.8	0.2	))
		((	0.0010	0.999	)
		(	0.1	0.9	)
		(	0.5	0.5	)));
}
potential ( CreditWorthiness | Reliability RatioDebInc FutureIncome Age )
{
	data = (((((	0.9	0.1	)
		(	0.908257	0.091743	)
		(	0.8	0.2	))
		((	0.7	0.3	)
		(	0.8	0.2	)
		(	0.6	0.4	)))
		(((	0.7	0.3	)
		(	0.727273	0.272727	)
		(	0.7	0.3	))
		((	0.25	0.75	)
		(	0.4	0.6	)
		(	0.25	0.75	))))
		((((	0.7	0.3	)
		(	0.8	0.2	)
		(	0.5	0.5	))
		((	0.3	0.7	)
		(	0.4	0.6	)
		(	0.2	0.8	)))
		(((	0.5	0.5	)
		(	0.5	0.5	)
		(	0.4	0.6	))
		((	0.0010	0.999	)
		(	0.0010	0.999	)
		(	0.0010	0.999	)))));
}
potential ( Income | )
{
	data = (	0.3333333333333333	0.3333333333333333	0.3333333333333333	);
}
potential ( Reliability | PaymentHistory WorkHistory )
{
	data = (((	0.99	0.01	)
		(	0.7	0.3	)
		(	0.7	0.3	)
		(	0.5	0.5	))
		((	0.7	0.3	)
		(	0.55	0.45	)
		(	0.6	0.4	)
		(	0.4	0.6	))
		((	0.196429	0.803571	)
		(	0.01	0.99	)
		(	0.1	0.9	)
		(	0.01	0.99	))
		((	0.7	0.3	)
		(	0.3	0.7	)
		(	0.5	0.5	)
		(	0.2	0.8	)));
}
potential ( Debit | )
{
	data = (	0.3333333333333333	0.3333333333333333	0.3333333333333333	);
}
potential ( Age | )
{
	data = (	0.3333333333333333	0.3333333333333333	0.3333333333333333	);
}
potential ( PaymentHistory | )
{
	data = (	0.25	0.25	0.25	0.25	);
}
potential ( Profession | )
{
	data = (	0.3333333333333333	0.3333333333333333	0.3333333333333333	);
}
potential ( FutureIncome | Worth Profession )
{
	data = (((	0.01	0.99	)
		(	0.2	0.8	)
		(	0.4	0.6	))
		((	0.15	0.85	)
		(	0.4	0.6	)
		(	0.5	0.5	))
		((	0.2	0.8	)
		(	0.6	0.4	)
		(	0.99	0.01	)));
}
potential ( WorkHistory | )
{
	data = (	0.25	0.25	0.25	0.25	);
}
